{"learner":{"attributes":{"best_iteration":"1","best_score":"28.124286430631592","scikit_learn":"{\"_estimator_type\": \"regressor\"}"},"feature_names":[],"feature_types":[],"gradient_booster":{"gbtree":{"model":{"gbtree_model_param":{"num_parallel_tree":"1","num_trees":"12"},"iteration_indptr":[0,1,2,3,4,5,6,7,8,9,10,11,12],"tree_info":[0,0,0,0,0,0,0,0,0,0,0,0],"trees":[{"base_weights":[-0E0,-1.0729489E1,4.7548443E1,-1.7415258E1,1.8459661E1,6.7397514E1,-8.271159E0,-2.1709232E1,2.5400288E1,2.052796E1,6.305685E0,-7.7462053E0,3.6413217E0,-1.5978503E1,-5.6808582E1,-1.7894506E1,1.5834681E1,-1.6560352E1,-4.7492557E0,-3.191104E1,-6.456592E0,-3.470118E1,-4.1920608E-1,1.9163916E1,-1.6421732E1,-1.0177962E1,-1.6403726E0,1.0735605E1,-8.4047335E-1,-2.9088502E0,-1.2154744E1],"categories":[],"categories_nodes":[],"categories_segments":[],"categories_sizes":[],"default_left":[0,0,0,0,0,0,0,0,0,0,0,0,0,0,0,0,0,0,0,0,0,0,0,0,0,0,0,0,0,0,0],"id":0,"left_children":[1,3,5,7,-1,9,11,13,-1,-1,-1,-1,-1,15,17,19,-1,-1,-1,21,23,25,-1,27,29,-1,-1,-1,-1,-1,-1],"loss_changes":[4.2798062E4,3.654907E4,1.7372902E4,3.1128287E4,0E0,3.3601055E3,2.127381E3,1.19401E4,0E0,0E0,0E0,0E0,0E0,8.0662197E3,9.047676E2,8.30817E3,0E0,0E0,0E0,1.9548887E3,7.657038E3,1.6097188E3,0E0,3.895309E3,3.2441445E3,0E0,0E0,0E0,0E0,0E0,0E0],"parents":[2147483647,0,0,1,1,2,2,3,3,5,5,6,6,7,7,13,13,14,14,15,15,19,19,20,20,21,21,23,23,24,24],"right_children":[2,4,6,8,-1,10,12,14,-1,-1,-1,-1,-1,16,18,20,-1,-1,-1,22,24,26,-1,28,30,-1,-1,-1,-1,-1,-1],"split_conditions":[6.4E1,5E-1,1E0,1E0,1.8459661E1,7.5E1,7.5E1,2.5E3,2.5400288E1,2.052796E1,6.305685E0,-7.7462053E0,3.6413217E0,8E-1,1E0,2E1,1.5834681E1,-1.6560352E1,-4.7492557E0,5E-1,1E0,2.2E2,-4.1920608E-1,1.2E0,2.9E0,-1.0177962E1,-1.6403726E0,1.0735605E1,-8.4047335E-1,-2.9088502E0,-1.2154744E1],"split_indices":[0,112,372,97,0,0,0,6,0,0,0,0,0,120,372,1,0,0,0,199,372,6,0,214,148,0,0,0,0,0,0],"split_type":[0,0,0,0,0,0,0,0,0,0,0,0,0,0,0,0,0,0,0,0,0,0,0,0,0,0,0,0,0,0,0],"sum_hessian":[8.3E1,6.8E1,1.5E1,6.3E1,5E0,1.1E1,4E0,6.1E1,2E0,9E0,2E0,2E0,2E0,5.3E1,8E0,5.2E1,1E0,7E0,1E0,2.3E1,2.9E1,2.1E1,2E0,8E0,2.1E1,1.9E1,2E0,4E0,4E0,1.8E1,3E0],"tree_param":{"num_deleted":"0","num_feature":"404","num_nodes":"31","size_leaf_vector":"1"}},{"base_weights":[2.2909556E-1,-7.6835093E0,3.5301434E1,-1.2674448E1,1.3858766E1,5.0152813E1,-6.4241276E0,-1.5987344E1,1.9760656E1,1.5218778E1,4.9056315E0,-6.026313E0,2.8328385E0,-1.1657997E1,-4.2519196E1,-1.3189689E1,1.2860134E1,-1.2334191E1,-3.8571076E0,-1.763784E0,-2.1413525E1,-4.539938E0,1.0812392E1,-2.4437353E1,4.770706E0,2.2667117E0,-3.3934238E0,-7.1094236E0,4.4254866E0],"categories":[],"categories_nodes":[],"categories_segments":[],"categories_sizes":[],"default_left":[0,0,0,0,0,0,0,0,0,0,0,0,0,0,0,0,0,0,0,0,0,0,0,0,0,0,0,0,0],"id":1,"left_children":[1,3,5,7,-1,9,11,13,-1,-1,-1,-1,-1,15,17,19,-1,-1,-1,21,23,25,-1,27,-1,-1,-1,-1,-1],"loss_changes":[2.3283588E4,2.0347158E4,9.723488E3,1.8472557E4,0E0,1.7065566E3,1.2881741E3,6.825915E3,0E0,0E0,0E0,0E0,0E0,5.1038213E3,3.9926367E2,4.906257E3,0E0,0E0,0E0,2.6651416E3,3.7820156E3,2.2486636E3,0E0,2.2277637E3,0E0,0E0,0E0,0E0,0E0],"parents":[2147483647,0,0,1,1,2,2,3,3,5,5,6,6,7,7,13,13,14,14,15,15,19,19,20,20,21,21,23,23],"right_children":[2,4,6,8,-1,10,12,14,-1,-1,-1,-1,-1,16,18,20,-1,-1,-1,22,24,26,-1,28,-1,-1,-1,-1,-1],"split_conditions":[6.4E1,5E-1,1E0,1E0,1.3858766E1,7.5E1,7.5E1,2.5E3,1.9760656E1,1.5218778E1,4.9056315E0,-6.026313E0,2.8328385E0,8E-1,1E0,1E0,1.2860134E1,-1.2334191E1,-3.8571076E0,1.4E-1,4E-1,3E1,1.0812392E1,3.5E0,4.770706E0,2.2667117E0,-3.3934238E0,-7.1094236E0,4.4254866E0],"split_indices":[0,112,372,97,0,0,0,6,0,0,0,0,0,120,372,88,0,0,0,106,121,0,0,149,0,0,0,0,0],"split_type":[0,0,0,0,0,0,0,0,0,0,0,0,0,0,0,0,0,0,0,0,0,0,0,0,0,0,0,0,0],"sum_hessian":[8.3E1,6.8E1,1.5E1,6.3E1,5E0,1.1E1,4E0,6.1E1,2E0,9E0,2E0,2E0,2E0,5.3E1,8E0,5.2E1,1E0,7E0,1E0,2.2E1,3E1,2.1E1,1E0,2.8E1,2E0,8E0,1.3E1,2.7E1,1E0],"tree_param":{"num_deleted":"0","num_feature":"404","num_nodes":"29","size_leaf_vector":"1"}},{"base_weights":[4.841601E-1,8.818738E0,-1.9783964E1,2.198854E1,-1.3317855E1,-2.7223349E1,2.8398938E0,5.928797E0,3.520294E1,-1.6623928E1,4.523272E0,-3.202681E1,-4.352429E0,6.702551E0,-3.3775215E0,1.1216229E1,-7.7260084E0,5.0738262E1,1.469745E1,-1.8610247E1,4.0928593E0,-8.973239E0,-3.7532218E0,4.6842966E0,6.9283265E-1,-5.083751E0,1.9255909E1,5.434831E1,2.4082468E0,-7.531868E0,2.5597677E1,-2.432044E1,-9.866111E0,2.851826E0,-4.18707E0,2.3356726E1,-3.6187217E0,1.5753021E1,8.582219E0,-3.1924682E0,-9.702248E-1,2.147568E0,7.643159E0,7.8999513E-1,-2.7071817E1,-7.3134714E-1,-6.2340736E0,2.5531408E-1,1.373649E0,9.96195E0,1.7549566E1,-2.8675785E1,-2.1998677E0,3.6822003E-1,-4.0136144E-1,5.2061596E0,1.2811457E0,-8.543703E0,-4.0270977E0,-0E0,2.0791781E-1],"categories":[],"categories_nodes":[],"categories_segments":[],"categories_sizes":[],"default_left":[0,0,0,0,0,0,0,0,0,0,0,0,0,0,0,0,0,0,0,0,0,0,0,0,0,0,0,0,0,0,0,0,0,0,0,0,0,0,0,0,0,0,0,0,0,0,0,0,0,0,0,0,0,0,0,0,0,0,0,0,0],"id":2,"left_children":[1,3,5,7,9,11,13,15,17,19,-1,21,-1,23,-1,25,-1,27,29,31,-1,-1,-1,-1,-1,33,35,37,-1,39,41,43,45,47,-1,49,-1,-1,-1,-1,-1,-1,-1,-1,51,53,-1,-1,-1,-1,55,57,-1,59,-1,-1,-1,-1,-1,-1,-1],"loss_changes":[1.4171316E4,1.7462336E4,4.1538096E3,7.8449824E3,2.3481301E3,7.525371E2,4.1637112E2,3.3108652E3,6.1673047E3,1.4130718E3,0E0,2.0891602E1,0E0,2.1472824E2,0E0,2.070545E3,0E0,1.5018145E3,2.3781243E3,8.569126E2,0E0,0E0,0E0,0E0,0E0,4.6913727E2,1.5365068E3,4.103711E1,0E0,3.571553E1,1.8533008E2,8.976533E2,9.982674E2,1.1155556E1,0E0,4.3401562E2,0E0,0E0,0E0,0E0,0E0,0E0,0E0,0E0,2.0656738E2,4.9522905E0,0E0,0E0,0E0,0E0,1.10531494E2,1.4871582E2,0E0,5.163982E-1,0E0,0E0,0E0,0E0,0E0,0E0,0E0],"parents":[2147483647,0,0,1,1,2,2,3,3,4,4,5,5,6,6,7,7,8,8,9,9,11,11,13,13,15,15,17,17,18,18,19,19,25,25,26,26,27,27,29,29,30,30,31,31,32,32,33,33,35,35,44,44,45,45,50,50,51,51,53,53],"right_children":[2,4,6,8,10,12,14,16,18,20,-1,22,-1,24,-1,26,-1,28,30,32,-1,-1,-1,-1,-1,34,36,38,-1,40,42,44,46,48,-1,50,-1,-1,-1,-1,-1,-1,-1,-1,52,54,-1,-1,-1,-1,56,58,-1,60,-1,-1,-1,-1,-1,-1,-1],"split_conditions":[4.4E1,1.63E2,1.98E2,1.4E2,2.5E-2,1.72E2,2.18E2,5E-1,1E3,4E-1,4.523272E0,8.5E2,-4.352429E0,1E1,-3.3775215E0,6.7E0,-7.7260084E0,7.5E1,1.6E1,5E1,4.0928593E0,-8.973239E0,-3.7532218E0,4.6842966E0,6.9283265E-1,3.8E2,5.1E1,3E1,2.4082468E0,5.8E1,2.9E1,1.25E1,5.8E1,1E1,-4.18707E0,3.33E2,-3.6187217E0,1.5753021E1,8.582219E0,-3.1924682E0,-9.702248E-1,2.147568E0,7.643159E0,7.8999513E-1,3.3E1,1.6E1,-6.2340736E0,2.5531408E-1,1.373649E0,9.96195E0,9.2E1,3E-1,-2.1998677E0,5.1E1,-4.0136144E-1,5.2061596E0,1.2811457E0,-8.543703E0,-4.0270977E0,-0E0,2.0791781E-1],"split_indices":[280,7,7,7,150,7,7,203,5,121,0,5,0,0,0,3,0,0,2,0,0,0,0,0,0,5,277,1,0,0,1,6,0,0,0,5,0,0,0,0,0,0,0,0,2,2,0,0,0,0,0,119,0,0,0,0,0,0,0,0,0],"split_type":[0,0,0,0,0,0,0,0,0,0,0,0,0,0,0,0,0,0,0,0,0,0,0,0,0,0,0,0,0,0,0,0,0,0,0,0,0,0,0,0,0,0,0,0,0,0,0,0,0,0,0,0,0,0,0,0,0,0,0,0,0],"sum_hessian":[8.3E1,5.9E1,2.4E1,3.7E1,2.2E1,1.8E1,6E0,1.7E1,2E1,2E1,2E0,1.2E1,6E0,5E0,1E0,1.5E1,2E0,1.1E1,9E0,1.9E1,1E0,1.1E1,1E0,1E0,4E0,5E0,1E1,1E1,1E0,3E0,6E0,1.1E1,8E0,3E0,2E0,9E0,1E0,8E0,2E0,1E0,2E0,1E0,5E0,1E0,1E1,5E0,3E0,2E0,1E0,2E0,7E0,9E0,1E0,2E0,3E0,6E0,1E0,7E0,2E0,1E0,1E0],"tree_param":{"num_deleted":"0","num_feature":"404","num_nodes":"61","size_leaf_vector":"1"}},{"base_weights":[3.956654E-1,6.6002154E0,-1.4691059E1,1.6441484E1,-9.939397E0,-2.0252653E1,2.2071235E0,-3.343688E0,2.2761286E1,-1.2472491E1,3.5189695E0,-8.237389E0,-1.6507284E1,5.333252E0,-2.7430542E0,8.85307E-1,-7.3766418E0,2.6992563E1,-2.739337E0,-1.4034825E1,3.3240151E0,-1.7279625E1,-1.1104656E0,3.8043509E0,5.2360713E-1,-3.350385E0,5.875644E0,2.8784515E1,-2.781627E0,1.7441468E0,-6.291289E0,3.6576256E-1,-1.5707279E1,-5.3377786E0,-3.2914624E0,1.9862585E-1,8.069257E0,3.069135E1,-2.5927627E0,-2.7541826E0,-7.5480604E-1,6.415947E-1,-4.3382046E-1,-3.8578947E0,-1.9089209E1,2.660507E0,1.2977166E0,3.2447224E1,2.8056133E0,-2.8854737E0,-1.24126054E-1,-2.0712366E1,1.6886069E-1,9.719086E0,4.536657E0,-3.852569E0,-6.9937897E0],"categories":[],"categories_nodes":[],"categories_segments":[],"categories_sizes":[],"default_left":[0,0,0,0,0,0,0,0,0,0,0,0,0,0,0,0,0,0,0,0,0,0,0,0,0,0,0,0,0,0,0,0,0,0,0,0,0,0,0,0,0,0,0,0,0,0,0,0,0,0,0,0,0,0,0,0,0],"id":3,"left_children":[1,3,5,7,9,11,13,15,17,19,-1,-1,21,23,-1,25,-1,27,29,31,-1,33,-1,-1,-1,-1,35,37,-1,-1,39,41,43,-1,-1,-1,45,47,-1,-1,-1,-1,-1,49,51,-1,-1,53,-1,-1,-1,55,-1,-1,-1,-1,-1],"loss_changes":[7.8523867E3,9.749958E3,2.3210542E3,4.7200127E3,1.374074E3,4.6474414E2,2.71054E2,9.6828546E2,3.1072334E3,8.6642236E2,0E0,0E0,1.0253931E2,1.4553842E2,0E0,5.8841785E2,0E0,1.7664707E3,1.626593E2,4.7412158E2,0E0,5.2520264E1,0E0,0E0,0E0,0E0,6.8229675E1,1.8487871E3,0E0,0E0,3.1338348E1,1.1437929E1,6.6145996E2,0E0,0E0,0E0,1.389801E0,6.439043E2,0E0,0E0,0E0,0E0,0E0,9.7866974E1,4.4015137E2,0E0,0E0,8.038867E2,0E0,0E0,0E0,2.3890527E2,0E0,0E0,0E0,0E0,0E0],"parents":[2147483647,0,0,1,1,2,2,3,3,4,4,5,5,6,6,7,7,8,8,9,9,12,12,13,13,15,15,17,17,18,18,19,19,21,21,26,26,27,27,30,30,31,31,32,32,36,36,37,37,43,43,44,44,47,47,51,51],"right_children":[2,4,6,8,10,12,14,16,18,20,-1,-1,22,24,-1,26,-1,28,30,32,-1,34,-1,-1,-1,-1,36,38,-1,-1,40,42,44,-1,-1,-1,46,48,-1,-1,-1,-1,-1,50,52,-1,-1,54,-1,-1,-1,56,-1,-1,-1,-1,-1],"split_conditions":[4.4E1,1.63E2,1.98E2,1.28E2,2.5E-2,1E0,2.18E2,1E0,5E-1,4E-1,3.5189695E0,-8.237389E0,1E0,1E1,-2.7430542E0,1.7E2,-7.3766418E0,7E-1,2.9E1,1.25E1,3.3240151E0,1E0,-1.1104656E0,3.8043509E0,5.2360713E-1,-3.350385E0,1E1,1E0,-2.781627E0,1.7441468E0,3.5E1,1.5E1,1E0,-5.3377786E0,-3.2914624E0,1.9862585E-1,2E1,3.9E1,-2.5927627E0,-2.7541826E0,-7.5480604E-1,6.415947E-1,-4.3382046E-1,4.5E1,7.4E0,2.660507E0,1.2977166E0,1.5E0,2.8056133E0,-2.8854737E0,-1.24126054E-1,1.4E1,1.6886069E-1,9.719086E0,4.536657E0,-3.852569E0,-6.9937897E0],"split_indices":[280,7,7,7,150,87,7,93,203,121,0,0,105,0,0,6,0,139,1,6,0,92,0,0,0,0,0,109,0,0,0,0,87,0,0,0,1,1,0,0,0,0,0,0,3,0,0,169,0,0,0,1,0,0,0,0,0],"split_type":[0,0,0,0,0,0,0,0,0,0,0,0,0,0,0,0,0,0,0,0,0,0,0,0,0,0,0,0,0,0,0,0,0,0,0,0,0,0,0,0,0,0,0,0,0,0,0,0,0,0,0,0,0,0,0,0,0],"sum_hessian":[8.3E1,5.9E1,2.4E1,3.7E1,2.2E1,1.8E1,6E0,9E0,2.8E1,2E1,2E0,4E0,1.4E1,5E0,1E0,8E0,1E0,2.4E1,4E0,1.9E1,1E0,1.3E1,1E0,1E0,4E0,2E0,6E0,2.3E1,1E0,1E0,3E0,2E0,1.7E1,8E0,5E0,2E0,4E0,2.2E1,1E0,1E0,2E0,1E0,1E0,4E0,1.3E1,2E0,2E0,2E1,2E0,1E0,3E0,1.2E1,1E0,1.6E1,4E0,6E0,6E0],"tree_param":{"num_deleted":"0","num_feature":"404","num_nodes":"57","size_leaf_vector":"1"}},{"base_weights":[1.8062197E-1,4.783269E0,-1.100669E1,1.1550767E1,-8.367181E0,-1.5198691E1,1.7174736E0,1.5147273E1,-7.877324E0,-1.0622898E1,2.7376525E0,-6.225394E0,-1.2334861E1,4.2498846E0,-2.227771E0,6.9431216E-1,1.96709E1,-1.5390883E1,5.919807E-1,-1.4417054E1,-5.345503E0,-1.287946E1,-9.018644E-1,3.0897024E0,3.957157E-1,-2.6064985E0,4.58567E0,2.0976238E1,-2.2590976E0,-2.3219209E0,-5.990938E0,1.4165083E0,-5.872161E-1,5.210712E-1,-1.6259619E1,-1.4250953E0,-3.9683044E0,-3.9653392E0,-2.471097E0,1.5452537E-1,6.28822E0,2.6235516E1,1.1365511E1,-1.7489891E1,-1.0629163E0,-4.3134046E-1,-1.2443408E0,2.069794E0,1.0095847E0,3.0480398E1,1.2632191E1,-2.7771983E0,4.1687326E0,-5.0373526E0,-1.7497277E0,2.6487988E-1,-2.5275466E-1,1.0164755E1,4.263124E0,3.9683297E0,1.0462598E0,7.90448E-1,-2.105712E0,-0E0,1.3714005E-1],"categories":[],"categories_nodes":[],"categories_segments":[],"categories_sizes":[],"default_left":[0,0,0,0,0,0,0,0,0,0,0,0,0,0,0,0,0,0,0,0,0,0,0,0,0,0,0,0,0,0,0,0,0,0,0,0,0,0,0,0,0,0,0,0,0,0,0,0,0,0,0,0,0,0,0,0,0,0,0,0,0,0,0,0,0],"id":4,"left_children":[1,3,5,7,9,11,13,15,17,19,-1,-1,21,23,-1,25,27,29,31,33,35,37,-1,-1,-1,-1,39,41,-1,-1,-1,-1,-1,-1,43,45,-1,-1,-1,-1,47,49,51,53,-1,55,-1,-1,-1,57,59,61,-1,-1,-1,63,-1,-1,-1,-1,-1,-1,-1,-1,-1],"loss_changes":[4.3187817E3,5.334001E3,1.3183486E3,2.8107593E3,8.9882556E2,2.7541943E2,1.766726E2,2.176228E3,4.1730353E2,3.308567E2,0E0,0E0,4.842456E1,9.8341125E1,0E0,3.5692862E2,1.0101553E3,6.686713E1,4.9591114E1,3.3133252E2,2.94411E2,2.3629395E1,0E0,0E0,0E0,0E0,4.1024765E1,1.0949658E3,0E0,0E0,0E0,0E0,0E0,0E0,1.0842334E2,1.8293354E1,0E0,0E0,0E0,0E0,2.501068E-1,7.114404E2,5.551056E2,4.1233887E1,0E0,2.1459384E0,0E0,0E0,0E0,9.056299E2,4.8600586E1,8.036438E1,0E0,0E0,0E0,1.9734381E-1,0E0,0E0,0E0,0E0,0E0,0E0,0E0,0E0,0E0],"parents":[2147483647,0,0,1,1,2,2,3,3,4,4,5,5,6,6,7,7,8,8,9,9,12,12,13,13,15,15,16,16,17,17,18,18,19,19,20,20,21,21,26,26,27,27,34,34,35,35,40,40,41,41,42,42,43,43,45,45,49,49,50,50,51,51,55,55],"right_children":[2,4,6,8,10,12,14,16,18,20,-1,-1,22,24,-1,26,28,30,32,34,36,38,-1,-1,-1,-1,40,42,-1,-1,-1,-1,-1,-1,44,46,-1,-1,-1,-1,48,50,52,54,-1,56,-1,-1,-1,58,60,62,-1,-1,-1,64,-1,-1,-1,-1,-1,-1,-1,-1,-1],"split_conditions":[4.4E1,1.69E2,1.98E2,5E-1,2.5E-2,1E0,2.18E2,1.28E2,3.5E1,5E1,2.7376525E0,-6.225394E0,1E0,1E1,-2.227771E0,1.7E2,7E-1,4.5E0,5.2E1,1.25E1,6.1E1,1E0,-9.018644E-1,3.0897024E0,3.957157E-1,-2.6064985E0,1E1,9.56E2,-2.2590976E0,-2.3219209E0,-5.990938E0,1.4165083E0,-5.872161E-1,5.210712E-1,3.3E1,5.8E1,-3.9683044E0,-3.9653392E0,-2.471097E0,1.5452537E-1,2E1,1.5E0,2.2E1,2.7E1,-1.0629163E0,1.6E1,-1.2443408E0,2.069794E0,1.0095847E0,1.54E2,2.6E1,1E1,4.1687326E0,-5.0373526E0,-1.7497277E0,5.1E1,-2.5275466E-1,1.0164755E1,4.263124E0,3.9683297E0,1.0462598E0,7.90448E-1,-2.105712E0,-0E0,1.3714005E-1],"split_indices":[280,7,7,203,150,87,7,7,0,0,0,0,105,0,0,6,139,4,0,6,0,92,0,0,0,0,0,5,0,0,0,0,0,0,2,0,0,0,0,0,1,169,1,4,0,2,0,0,0,7,1,0,0,0,0,0,0,0,0,0,0,0,0,0,0],"split_type":[0,0,0,0,0,0,0,0,0,0,0,0,0,0,0,0,0,0,0,0,0,0,0,0,0,0,0,0,0,0,0,0,0,0,0,0,0,0,0,0,0,0,0,0,0,0,0,0,0,0,0,0,0,0,0,0,0,0,0,0,0,0,0,0,0],"sum_hessian":[8.3E1,5.9E1,2.4E1,3.9E1,2E1,1.8E1,6E0,3.3E1,6E0,1.8E1,2E0,4E0,1.4E1,5E0,1E0,8E0,2.5E1,3E0,3E0,1E1,8E0,1.3E1,1E0,1E0,4E0,2E0,6E0,2.4E1,1E0,2E0,1E0,1E0,2E0,1E0,9E0,6E0,2E0,8E0,5E0,2E0,4E0,1.5E1,9E0,8E0,1E0,5E0,1E0,2E0,2E0,1.1E1,4E0,2E0,7E0,7E0,1E0,2E0,3E0,7E0,4E0,3E0,1E0,1E0,1E0,1E0,1E0],"tree_param":{"num_deleted":"0","num_feature":"404","num_nodes":"65","size_leaf_vector":"1"}},{"base_weights":[8.104484E-2,3.5090446E0,-8.247955E0,8.568734E0,-6.3187532E0,-1.1410011E1,1.3381348E0,1.1319523E1,-6.2647653E0,-8.055509E0,2.12981E0,-4.7048316E0,-9.220944E0,2.509302E0,-8.305257E-1,5.457238E-1,1.4688998E1,-1.4601503E1,-1.0045687E0,-1.8779159E0,-9.693681E0,-3.025124E0,-6.7167234E0,2.99062E-1,-1.8092836E0,-2.0277767E0,3.5821085E0,1.5698118E1,-1.8347255E0,-4.86554E0,-1.8006358E0,-3.1354346E0,1.1504164E0,-1.3971689E0,-5.4958995E-2,1.7102945E-1,-1.1302164E1,-1.1095273E0,-2.180608E0,1.20215975E-1,1.3306485E0,1.9685955E1,8.415134E0,-1.216178E0,-4.5683646E-1,4.2318767E-1,-3.0484757E-1,-1.2360011E1,1.1137859E-1,2.2773373E1,9.718426E0,-1.7101533E0,1.051473E1,-8.306107E0,-1.4898894E1,7.091202E0,1.5167756E0,3.0303507E0,8.497202E-1,6.4196163E-1,3.1048827E0,-1.1309117E0,-2.7439494E0,-4.3427796E0,-1.6322354E0],"categories":[],"categories_nodes":[],"categories_segments":[],"categories_sizes":[],"default_left":[0,0,0,0,0,0,0,0,0,0,0,0,0,0,0,0,0,0,0,0,0,0,0,0,0,0,0,0,0,0,0,0,0,0,0,0,0,0,0,0,0,0,0,0,0,0,0,0,0,0,0,0,0,0,0,0,0,0,0,0,0,0,0,0,0],"id":5,"left_children":[1,3,5,7,9,11,13,15,17,19,-1,-1,21,-1,23,25,27,29,31,33,35,-1,37,-1,-1,-1,39,41,-1,-1,-1,43,-1,-1,-1,45,47,-1,-1,-1,-1,49,51,-1,-1,-1,-1,53,-1,55,57,-1,59,61,63,-1,-1,-1,-1,-1,-1,-1,-1,-1,-1],"loss_changes":[2.3943728E3,2.9804937E3,7.498916E2,1.642117E3,5.3115924E2,1.6248071E2,1.1571348E2,1.2073237E3,2.727942E2,1.7611194E2,0E0,0E0,3.2539185E1,0E0,6.5845535E1,2.1664781E2,5.9983936E2,6.659363E0,5.5338158E1,2.2753218E1,2.3241748E2,0E0,8.606354E0,0E0,0E0,0E0,2.4617867E1,6.3031396E2,0E0,0E0,0E0,2.0702362E0,0E0,0E0,0E0,5.263732E0,1.589801E2,0E0,0E0,0E0,0E0,3.6996094E2,3.2218872E2,0E0,0E0,0E0,0E0,5.782837E1,0E0,5.878711E2,2.3779877E1,0E0,4.868976E1,1.8888428E1,1.5612671E1,0E0,0E0,0E0,0E0,0E0,0E0,0E0,0E0,0E0,0E0],"parents":[2147483647,0,0,1,1,2,2,3,3,4,4,5,5,6,6,7,7,8,8,9,9,12,12,14,14,15,15,16,16,17,17,18,18,19,19,20,20,22,22,26,26,27,27,31,31,35,35,36,36,41,41,42,42,47,47,49,49,50,50,52,52,53,53,54,54],"right_children":[2,4,6,8,10,12,14,16,18,20,-1,-1,22,-1,24,26,28,30,32,34,36,-1,38,-1,-1,-1,40,42,-1,-1,-1,44,-1,-1,-1,46,48,-1,-1,-1,-1,50,52,-1,-1,-1,-1,54,-1,56,58,-1,60,62,64,-1,-1,-1,-1,-1,-1,-1,-1,-1,-1],"split_conditions":[4.4E1,1.69E2,1.98E2,5E-1,2.5E-2,1E0,1E1,1.28E2,1.4E2,1E0,2.12981E0,-4.7048316E0,7.2E1,2.509302E0,2.1E1,1.7E2,7E-1,2.8E1,1.6E1,4.5E1,1.25E1,-3.025124E0,2.8E1,2.99062E-1,-1.8092836E0,-2.0277767E0,1E1,9.56E2,-1.8347255E0,-4.86554E0,-1.8006358E0,1.9E1,1.1504164E0,-1.3971689E0,-5.4958995E-2,1.5E1,7.4E0,-1.1095273E0,-2.180608E0,1.20215975E-1,1.3306485E0,1.5E0,1.9E1,-1.216178E0,-4.5683646E-1,4.2318767E-1,-3.0484757E-1,1.4E1,1.1137859E-1,3E1,2.6E1,-1.7101533E0,1E1,8.5E0,4.3E1,7.091202E0,1.5167756E0,3.0303507E0,8.497202E-1,6.4196163E-1,3.1048827E0,-1.1309117E0,-2.7439494E0,-4.3427796E0,-1.6322354E0],"split_indices":[280,7,7,203,150,87,0,7,7,87,0,0,280,0,1,6,139,0,2,0,6,0,1,0,0,0,0,5,0,0,0,0,0,0,0,0,3,0,0,0,0,169,1,0,0,0,0,1,0,1,1,0,0,4,1,0,0,0,0,0,0,0,0,0,0],"split_type":[0,0,0,0,0,0,0,0,0,0,0,0,0,0,0,0,0,0,0,0,0,0,0,0,0,0,0,0,0,0,0,0,0,0,0,0,0,0,0,0,0,0,0,0,0,0,0,0,0,0,0,0,0,0,0,0,0,0,0,0,0,0,0,0,0],"sum_hessian":[8.3E1,5.9E1,2.4E1,3.9E1,2E1,1.8E1,6E0,3.3E1,6E0,1.8E1,2E0,4E0,1.4E1,1E0,5E0,8E0,2.5E1,2E0,4E0,4E0,1.4E1,7E0,7E0,4E0,1E0,2E0,6E0,2.4E1,1E0,1E0,1E0,3E0,1E0,1E0,3E0,2E0,1.2E1,3E0,4E0,2E0,4E0,1.5E1,9E0,1E0,2E0,1E0,1E0,1.1E1,1E0,1.1E1,4E0,1E0,8E0,5E0,6E0,9E0,2E0,3E0,1E0,1E0,7E0,2E0,3E0,5E0,1E0],"tree_param":{"num_deleted":"0","num_feature":"404","num_nodes":"65","size_leaf_vector":"1"}},{"base_weights":[-1.4853129E-2,2.5236645E0,-6.1964016E0,6.30004E0,-4.806757E0,-8.588291E0,1.0439037E0,8.415221E0,-5.0784516E0,-6.1486273E0,1.6569285E0,-6.4224043E0,-3.2963123E0,2.0379295E0,-7.179375E-1,3.6721495E-1,1.0930813E1,-1.1874884E1,-7.8421515E-1,-8.428422E0,-2.9799314E0,-6.7213154E0,-5.240243E-1,2.2601502E-1,-1.4694092E0,-1.5775489E0,2.7189333E0,1.1711136E1,-1.4900723E0,-3.9515471E0,-1.462386E0,-2.5171633E0,9.34311E-1,3.4369186E-1,-9.536947E0,-2.5145066E-1,-6.8462005E0,-2.1318336E0,-1.3006119E0,1.2301713E0,1.3147925E0,1.288051E1,-1.0685025E0,-9.877185E-1,-3.554049E-1,-1.0230936E1,-6.508051E-1,5.040421E-2,-1.6033272E-1,-7.981492E-1,-2.1229918E0,9.35243E-2,4.8998216E-1,1.4944886E1,6.69106E0,8.583824E-1,-1.3889009E0,-1.0929177E1,-9.055892E-1,4.450287E0,9.66753E-1,2.0479972E0,3.43067E-1,-1.1347108E0,-3.163305E0],"categories":[],"categories_nodes":[],"categories_segments":[],"categories_sizes":[],"default_left":[0,0,0,0,0,0,0,0,0,0,0,0,0,0,0,0,0,0,0,0,0,0,0,0,0,0,0,0,0,0,0,0,0,0,0,0,0,0,0,0,0,0,0,0,0,0,0,0,0,0,0,0,0,0,0,0,0,0,0,0,0,0,0,0,0],"id":6,"left_children":[1,3,5,7,9,11,13,15,17,19,-1,21,-1,-1,23,25,27,29,31,33,35,37,-1,-1,-1,-1,39,41,-1,-1,-1,43,-1,-1,45,47,49,-1,-1,51,-1,53,55,-1,-1,57,-1,-1,-1,-1,-1,-1,-1,59,61,-1,-1,63,-1,-1,-1,-1,-1,-1,-1],"loss_changes":[1.3171484E3,1.659365E3,4.289225E2,9.6905994E2,3.160576E2,1.0345349E2,7.724099E1,6.729287E2,1.8127185E2,1.1965564E2,0E0,9.103088E0,0E0,0E0,4.262439E1,1.2909952E2,3.55958E2,3.447998E0,3.62147E1,1.1937341E2,8.681577E1,5.5997925E0,0E0,0E0,0E0,0E0,1.6454006E1,3.7393262E2,0E0,0E0,0E0,1.499773E0,0E0,0E0,3.3206055E1,9.421679E-1,6.1512756E-1,0E0,0E0,1.531702E0,0E0,2.37719E2,4.9495537E1,0E0,0E0,2.1409485E1,0E0,0E0,0E0,0E0,0E0,0E0,0E0,2.4153857E2,2.37807E1,0E0,0E0,1.1428589E1,0E0,0E0,0E0,0E0,0E0,0E0,0E0],"parents":[2147483647,0,0,1,1,2,2,3,3,4,4,5,5,6,6,7,7,8,8,9,9,11,11,14,14,15,15,16,16,17,17,18,18,19,19,20,20,21,21,26,26,27,27,31,31,34,34,35,35,36,36,39,39,41,41,42,42,45,45,53,53,54,54,57,57],"right_children":[2,4,6,8,10,12,14,16,18,20,-1,22,-1,-1,24,26,28,30,32,34,36,38,-1,-1,-1,-1,40,42,-1,-1,-1,44,-1,-1,46,48,50,-1,-1,52,-1,54,56,-1,-1,58,-1,-1,-1,-1,-1,-1,-1,60,62,-1,-1,64,-1,-1,-1,-1,-1,-1,-1],"split_conditions":[4.4E1,1.69E2,1.98E2,5E-1,2.5E-2,1E0,1E1,1.28E2,1.4E2,5E1,1.6569285E0,2E2,-3.2963123E0,2.0379295E0,2.1E1,1.7E2,7E-1,2.8E1,1.6E1,1.25E1,5.8E1,1.4E1,-5.240243E-1,2.2601502E-1,-1.4694092E0,-1.5775489E0,7E0,2E0,-1.4900723E0,-3.9515471E0,-1.462386E0,1.9E1,9.34311E-1,3.4369186E-1,3.3E1,1.6E1,6.1E1,-2.1318336E0,-1.3006119E0,1E1,1.3147925E0,3.2E1,3E1,-9.877185E-1,-3.554049E-1,2.7E1,-6.508051E-1,5.040421E-2,-1.6033272E-1,-7.981492E-1,-2.1229918E0,9.35243E-2,4.8998216E-1,3E-1,6.9E1,8.583824E-1,-1.3889009E0,1E0,-9.055892E-1,4.450287E0,9.66753E-1,2.0479972E0,3.43067E-1,-1.1347108E0,-3.163305E0],"split_indices":[280,7,7,203,150,95,0,7,7,0,0,6,0,0,1,6,139,0,2,6,0,2,0,0,0,0,3,268,0,0,0,0,0,0,2,2,0,0,0,0,0,1,0,0,0,4,0,0,0,0,0,0,0,130,0,0,0,87,0,0,0,0,0,0,0],"split_type":[0,0,0,0,0,0,0,0,0,0,0,0,0,0,0,0,0,0,0,0,0,0,0,0,0,0,0,0,0,0,0,0,0,0,0,0,0,0,0,0,0,0,0,0,0,0,0,0,0,0,0,0,0,0,0,0,0,0,0,0,0,0,0,0,0],"sum_hessian":[8.3E1,5.9E1,2.4E1,3.9E1,2E1,1.8E1,6E0,3.3E1,6E0,1.8E1,2E0,1.2E1,6E0,1E0,5E0,8E0,2.5E1,2E0,4E0,1E1,8E0,1.1E1,1E0,4E0,1E0,2E0,6E0,2.4E1,1E0,1E0,1E0,3E0,1E0,1E0,9E0,5E0,3E0,6E0,5E0,4E0,2E0,2.2E1,2E0,1E0,2E0,8E0,1E0,2E0,3E0,1E0,2E0,2E0,2E0,1.6E1,6E0,1E0,1E0,7E0,1E0,1.4E1,2E0,5E0,1E0,1E0,6E0],"tree_param":{"num_deleted":"0","num_feature":"404","num_nodes":"65","size_leaf_vector":"1"}},{"base_weights":[-8.318838E-2,-9.3369764E-1,1.213813E1,-1.3922772E0,6.4562426E0,4.9237976E0,1.3844584E0,-2.329893E0,7.5343957E0,-2.1746352E-1,8.930898E-1,-3.2146018E0,8.455388E0,2.5047576E0,1.470993E0,-2.284594E0,-9.346423E0,3.3089912E0,1.2621821E0,-3.119658E0,1.5856346E0,-1.7489759E0,-3.4376466E0,-3.57882E0,3.145733E0,1.6661661E0,-5.874825E-1,-1.1282754E0,5.4086727E-1,1.0228696E0,2.6505023E-1,-1.0337735E0,2.3560484E-1],"categories":[],"categories_nodes":[],"categories_segments":[],"categories_sizes":[],"default_left":[0,0,0,0,0,0,0,0,0,0,0,0,0,0,0,0,0,0,0,0,0,0,0,0,0,0,0,0,0,0,0,0,0],"id":7,"left_children":[1,3,5,7,-1,-1,9,11,13,-1,-1,15,17,-1,-1,19,21,-1,-1,23,25,-1,-1,27,29,-1,31,-1,-1,-1,-1,-1,-1],"loss_changes":[8.7002277E2,8.9928296E2,3.3618292E2,6.549038E2,0E0,0E0,1.1885286E1,6.831541E2,1.3187256E0,0E0,0E0,3.6124585E2,4.8617493E1,0E0,0E0,1.8818079E2,4.1003174E1,0E0,0E0,1.415906E2,1.0612759E2,0E0,0E0,1.4731879E2,2.0124168E0,0E0,3.7001156E1,0E0,0E0,0E0,0E0,0E0,0E0],"parents":[2147483647,0,0,1,1,2,2,3,3,6,6,7,7,8,8,11,11,12,12,15,15,16,16,19,19,20,20,23,23,24,24,26,26],"right_children":[2,4,6,8,-1,-1,10,12,14,-1,-1,16,18,-1,-1,20,22,-1,-1,24,26,-1,-1,28,30,-1,32,-1,-1,-1,-1,-1,-1],"split_conditions":[1E0,3.7E0,1.41E2,1.5E0,6.4562426E0,4.9237976E0,5.7E1,5E-1,6.5E1,-2.1746352E-1,8.930898E-1,2.5E3,3.2E1,2.5047576E0,1.470993E0,3.7E1,4.5E0,3.3089912E0,1.2621821E0,7.5E1,1E1,-1.7489759E0,-3.4376466E0,1.25E0,9.2E1,1.6661661E0,2.7E1,-1.1282754E0,5.4086727E-1,1.0228696E0,2.6505023E-1,-1.0337735E0,2.3560484E-1],"split_indices":[358,107,7,206,0,0,0,112,0,0,0,6,0,0,0,1,4,0,0,0,0,0,0,214,0,0,0,0,0,0,0,0,0],"split_type":[0,0,0,0,0,0,0,0,0,0,0,0,0,0,0,0,0,0,0,0,0,0,0,0,0,0,0,0,0,0,0,0,0],"sum_hessian":[8.3E1,7.8E1,5E0,7.7E1,1E0,3E0,2E0,7E1,7E0,1E0,1E0,6.5E1,5E0,3E0,4E0,5.7E1,8E0,2E0,3E0,4.7E1,1E1,5E0,3E0,4.4E1,3E0,3E0,7E0,4E1,4E0,2E0,1E0,2E0,5E0],"tree_param":{"num_deleted":"0","num_feature":"404","num_nodes":"33","size_leaf_vector":"1"}},{"base_weights":[3.0370578E-2,-3.052558E-1,5.2434373E0,-9.816259E-1,9.301132E0,-1.6882411E0,5.7347283E0,3.7599783E0,1.1081091E0,-2.364946E0,6.5444984E0,1.912717E0,1.1117008E0,-1.7661278E-1,7.2532135E-1,-1.6483703E0,-7.089684E0,2.5742948E0,9.638462E-1,-1.299838E0,-2.4877648E0,-1.1557951E0,-2.4871857E0,-1.644107E0,1.098614E0,1.7833179E-2,-7.582386E-1],"categories":[],"categories_nodes":[],"categories_segments":[],"categories_sizes":[],"default_left":[0,0,0,0,0,0,0,0,0,0,0,0,0,0,0,0,0,0,0,0,0,0,0,0,0,0,0],"id":8,"left_children":[1,3,-1,5,7,9,11,-1,13,15,17,-1,-1,-1,-1,19,21,-1,-1,23,-1,-1,-1,25,-1,-1,-1],"loss_changes":[5.468502E2,5.3798254E2,0E0,3.7099353E2,1.9306973E2,3.9845755E2,8.117981E-1,0E0,7.928196E0,2.1452252E2,3.017508E1,0E0,0E0,0E0,0E0,1.4299432E2,2.9388123E1,0E0,0E0,1.0452521E2,0E0,0E0,0E0,1.03739624E2,0E0,0E0,0E0],"parents":[2147483647,0,0,1,1,3,3,4,4,5,5,6,6,8,8,9,9,10,10,15,15,16,16,19,19,23,23],"right_children":[2,4,-1,6,8,10,12,-1,14,16,18,-1,-1,-1,-1,20,22,-1,-1,24,-1,-1,-1,26,-1,-1,-1],"split_conditions":[3.7E0,1E0,5.2434373E0,1.5E0,1.41E2,5E-1,6.5E1,3.7599783E0,5.7E1,2.5E3,3.2E1,1.912717E0,1.1117008E0,-1.7661278E-1,7.2532135E-1,1E0,7E0,2.5742948E0,9.638462E-1,4E-1,-2.4877648E0,-1.1557951E0,-2.4871857E0,1E0,1.098614E0,1.7833179E-2,-7.582386E-1],"split_indices":[107,358,0,206,7,112,0,0,0,6,0,0,0,0,0,390,3,0,0,121,0,0,0,88,0,0,0],"split_type":[0,0,0,0,0,0,0,0,0,0,0,0,0,0,0,0,0,0,0,0,0,0,0,0,0,0,0],"sum_hessian":[8.3E1,8.2E1,1E0,7.7E1,5E0,7E1,7E0,3E0,2E0,6.5E1,5E0,3E0,4E0,1E0,1E0,5.7E1,8E0,2E0,3E0,5.5E1,2E0,4E0,4E0,5.2E1,3E0,2.1E1,3.1E1],"tree_param":{"num_deleted":"0","num_feature":"404","num_nodes":"27","size_leaf_vector":"1"}},{"base_weights":[7.9329655E-2,-1.9210353E-1,4.258456E0,-7.0843184E-1,7.128685E0,-1.2433199E0,4.366677E0,2.8712463E0,8.836726E-1,-1.763179E0,5.067847E0,1.860692E0,9.4301605E-1,-1.4343603E-1,5.890686E-1,-1.3607973E0,-7.101513E0,2.0027235E0,7.360242E-1,7.5745875E-1,-1.8362739E0,-2.573419E0,-2.782229E0,-3.4745882E0,-5.2995384E-1,-8.8557714E-1,-2.5651348E-1,-1.0639149E0,3.145543E-1,6.790667E-1,-3.9419332E-1],"categories":[],"categories_nodes":[],"categories_segments":[],"categories_sizes":[],"default_left":[0,0,0,0,0,0,0,0,0,0,0,0,0,0,0,0,0,0,0,0,0,0,0,0,0,0,0,0,0,0,0],"id":9,"left_children":[1,3,-1,5,7,9,11,-1,13,15,17,-1,-1,-1,-1,19,21,-1,-1,-1,23,25,-1,27,29,-1,-1,-1,-1,-1,-1],"loss_changes":[3.5819638E2,3.1252237E2,0E0,2.119865E2,1.1072781E2,2.3439867E2,3.7482147E0,0E0,5.3002977E0,1.3448715E2,1.8606949E1,0E0,0E0,0E0,0E0,1.23368095E2,4.8933517E1,0E0,0E0,0E0,1.16993576E2,4.8134804E-1,0E0,5.304181E1,8.933432E1,0E0,0E0,0E0,0E0,0E0,0E0],"parents":[2147483647,0,0,1,1,3,3,4,4,5,5,6,6,8,8,9,9,10,10,15,15,16,16,20,20,21,21,23,23,24,24],"right_children":[2,4,-1,6,8,10,12,-1,14,16,18,-1,-1,-1,-1,20,22,-1,-1,-1,24,26,-1,28,30,-1,-1,-1,-1,-1,-1],"split_conditions":[3.7E0,1E0,4.258456E0,1.5E0,1.41E2,5E-1,3.9E1,2.8712463E0,5.7E1,6.9E1,3.2E1,1.860692E0,9.4301605E-1,-1.4343603E-1,5.890686E-1,1.12E2,4E0,2.0027235E0,7.360242E-1,7.5745875E-1,2E1,1.7E1,-2.782229E0,5E-1,6.8E0,-8.8557714E-1,-2.5651348E-1,-1.0639149E0,3.145543E-1,6.790667E-1,-3.9419332E-1],"split_indices":[107,358,0,206,7,112,0,0,0,272,0,0,0,0,0,7,4,0,0,0,1,0,0,199,3,0,0,0,0,0,0],"split_type":[0,0,0,0,0,0,0,0,0,0,0,0,0,0,0,0,0,0,0,0,0,0,0,0,0,0,0,0,0,0,0],"sum_hessian":[8.3E1,8.2E1,1E0,7.7E1,5E0,7E1,7E0,3E0,2E0,6.5E1,5E0,1E0,6E0,1E0,1E0,6.1E1,4E0,2E0,3E0,6E0,5.5E1,2E0,2E0,2.4E1,3.1E1,1E0,1E0,2.2E1,2E0,7E0,2.4E1],"tree_param":{"num_deleted":"0","num_feature":"404","num_nodes":"31","size_leaf_vector":"1"}},{"base_weights":[1.1043861E-1,-1.089651E-1,3.458505E0,-3.7550023E-1,2.332608E0,4.6055093E-1,-2.5545156E0,8.647647E-1,-6.0432496E0,-4.523569E0,-4.676621E-1,1.8762867E0,-1.3743302E0,-2.0832771E-1,-2.16449E0,-8.118237E-1,-1.4855037E0,-2.1954513E0,1.5767564E0,2.157642E0,-6.982346E-1,4.952056E-1,-4.6322827E0,3.6204197E-2,-8.9684916E-1,1.2112019E0,4.3323657E-1,1.8693199E0,1.5580598E0,-2.9484797E-1,9.6185493E-1,-1.3925192E0,-3.2071292E-1,-0E0,1.6721755E-1,5.8257914E-1,-2.2805187E-1,-3.8950804E-1,2.9415685E-1],"categories":[],"categories_nodes":[],"categories_segments":[],"categories_sizes":[],"default_left":[0,0,0,0,0,0,0,0,0,0,0,0,0,0,0,0,0,0,0,0,0,0,0,0,0,0,0,0,0,0,0,0,0,0,0,0,0,0,0],"id":10,"left_children":[1,3,-1,5,-1,7,9,11,13,15,17,19,21,-1,-1,-1,-1,23,25,27,-1,29,31,-1,-1,-1,33,35,-1,37,-1,-1,-1,-1,-1,-1,-1,-1,-1],"loss_changes":[2.345626E2,1.9094269E2,0E0,1.4751881E2,0E0,1.54875E2,9.023036E1,1.26830124E2,3.0529465E1,7.5798035E0,4.209791E1,5.0503067E1,1.0815094E2,0E0,0E0,0E0,0E0,1.7511148E1,1.6070621E1,3.1262558E1,0E0,2.8719017E1,7.047699E0,0E0,0E0,0E0,4.732991E-1,2.6943405E1,0E0,1.5613544E1,0E0,0E0,0E0,0E0,0E0,0E0,0E0,0E0,0E0],"parents":[2147483647,0,0,1,1,3,3,5,5,6,6,7,7,8,8,9,9,10,10,11,11,12,12,17,17,18,18,19,19,21,21,22,22,26,26,27,27,29,29],"right_children":[2,4,-1,6,-1,8,10,12,14,16,18,20,22,-1,-1,-1,-1,24,26,28,-1,30,32,-1,-1,-1,34,36,-1,38,-1,-1,-1,-1,-1,-1,-1,-1,-1],"split_conditions":[3.7E0,1E0,3.458505E0,5E1,2.332608E0,6.9E1,1.72E2,1.74E2,4E0,1.32E2,9.6E1,1.25E1,1E0,-2.0832771E-1,-2.16449E0,-8.118237E-1,-1.4855037E0,1.4E1,1E1,2.8E3,-6.982346E-1,2E0,2.2E1,3.6204197E-2,-8.9684916E-1,1.2112019E0,1.5E1,2.5E3,1.5580598E0,1.4E1,9.6185493E-1,-1.3925192E0,-3.2071292E-1,-0E0,1.6721755E-1,5.8257914E-1,-2.2805187E-1,-3.8950804E-1,2.9415685E-1],"split_indices":[107,97,0,280,0,272,7,7,1,7,5,175,88,0,0,0,0,1,0,6,0,87,1,0,0,0,0,6,0,1,0,0,0,0,0,0,0,0,0],"split_type":[0,0,0,0,0,0,0,0,0,0,0,0,0,0,0,0,0,0,0,0,0,0,0,0,0,0,0,0,0,0,0,0,0,0,0,0,0,0,0],"sum_hessian":[8.3E1,8.2E1,1E0,8E1,2E0,5.8E1,2.2E1,5.5E1,3E0,1.1E1,1.1E1,3.8E1,1.7E1,1E0,2E0,5E0,6E0,6E0,5E0,3.6E1,2E0,1.1E1,6E0,2E0,4E0,1E0,4E0,3.4E1,2E0,9E0,2E0,5E0,1E0,1E0,3E0,3.1E1,3E0,5E0,4E0],"tree_param":{"num_deleted":"0","num_feature":"404","num_nodes":"39","size_leaf_vector":"1"}},{"base_weights":[8.914138E-2,-8.857126E-2,2.8088229E0,-4.1098216E-1,4.4655733E0,-1.0375557E0,1.4708011E0,1.7791129E0,6.2242866E-1,-1.4627894E0,3.1822627E0,3.1907632E0,3.722764E-1,-4.3322448E-2,3.6897463E-1,-4.750422E-1,-3.1681383E0,1.2121234E0,4.8822007E-1,9.6771896E-1,1.0596832E-1,-1.4632372E0,1.7209023E0,1.6935818E0,-8.760746E-1,-2.2430267E0,-1.4451938E0,-6.368371E-1,-5.8603084E-1,-2.1149074E-1,5.9588695E-1,2.3038863E-1,9.8367697E-1,-1.4709549E0,1.3155621E0,-6.243354E-1,-3.699238E0,-0E0,-2.022814E-1,-4.5221967E-1,5.0689846E-1,7.1783704E-1,1.09953046E-1,-6.583426E-1,2.1346872E-1,-6.027049E-1,-1.3755103E0],"categories":[],"categories_nodes":[],"categories_segments":[],"categories_sizes":[],"default_left":[0,0,0,0,0,0,0,0,0,0,0,0,0,0,0,0,0,0,0,0,0,0,0,0,0,0,0,0,0,0,0,0,0,0,0,0,0,0,0,0,0,0,0,0,0,0,0],"id":11,"left_children":[1,3,-1,5,7,9,11,-1,13,15,17,19,21,-1,-1,23,25,-1,-1,-1,-1,27,29,31,33,35,-1,-1,37,-1,-1,-1,-1,39,41,43,45,-1,-1,-1,-1,-1,-1,-1,-1,-1,-1],"loss_changes":[1.5472371E2,1.210118E2,0E0,9.190041E1,4.038546E1,1.0658049E2,3.5456345E1,0E0,1.7598528E0,8.858412E1,4.768963E0,6.3543396E0,3.1980999E1,0E0,0E0,3.0443144E1,3.1876831E1,0E0,0E0,0E0,0E0,2.9851522E0,9.894337E0,6.564E0,3.9282818E1,3.2105507E1,0E0,0E0,1.7491353E-1,0E0,0E0,0E0,0E0,1.6620193E1,6.6768723E0,2.0115295E1,8.516556E0,0E0,0E0,0E0,0E0,0E0,0E0,0E0,0E0,0E0,0E0],"parents":[2147483647,0,0,1,1,3,3,4,4,5,5,6,6,8,8,9,9,10,10,11,11,12,12,15,15,16,16,21,21,22,22,23,23,24,24,25,25,28,28,33,33,34,34,35,35,36,36],"right_children":[2,4,-1,6,8,10,12,-1,14,16,18,20,22,-1,-1,24,26,-1,-1,-1,-1,28,30,32,34,36,-1,-1,38,-1,-1,-1,-1,40,42,44,46,-1,-1,-1,-1,-1,-1,-1,-1,-1,-1],"split_conditions":[3.7E0,1E0,2.8088229E0,9.3E2,1.41E2,5E-1,1E3,1.7791129E0,5.7E1,1.07E2,3.2E1,9.2E1,1.6E1,-4.3322448E-2,3.6897463E-1,1E0,8.5E0,1.2121234E0,4.8822007E-1,9.6771896E-1,1.0596832E-1,1.9E1,1.32E2,3E1,1.2E0,1E0,-1.4451938E0,-6.368371E-1,1.5E1,-2.1149074E-1,5.9588695E-1,2.3038863E-1,9.8367697E-1,1.8E0,4E0,3.5E1,1.65E2,-0E0,-2.022814E-1,-4.5221967E-1,5.0689846E-1,7.1783704E-1,1.09953046E-1,-6.583426E-1,2.1346872E-1,-6.027049E-1,-1.3755103E0],"split_indices":[107,358,0,5,7,112,5,0,0,5,0,0,2,0,0,87,4,0,0,0,0,1,7,1,214,87,0,0,0,0,0,0,0,133,4,0,7,0,0,0,0,0,0,0,0,0,0],"split_type":[0,0,0,0,0,0,0,0,0,0,0,0,0,0,0,0,0,0,0,0,0,0,0,0,0,0,0,0,0,0,0,0,0,0,0,0,0,0,0,0,0,0,0,0,0,0,0],"sum_hessian":[8.3E1,8.2E1,1E0,7.7E1,5E0,5.8E1,1.9E1,3E0,2E0,5.3E1,5E0,7E0,1.2E1,1E0,1E0,3.4E1,1.9E1,2E0,3E0,6E0,1E0,5E0,7E0,5E0,2.9E1,1.4E1,5E0,2E0,3E0,1E0,6E0,4E0,1E0,2.3E1,6E0,7E0,7E0,1E0,2E0,2.2E1,1E0,2E0,4E0,3E0,4E0,4E0,3E0],"tree_param":{"num_deleted":"0","num_feature":"404","num_nodes":"47","size_leaf_vector":"1"}}]},"name":"gbtree"},"name":"dart","weight_drop":[1E0,1E0,1E0,1E0,1E0,1E0,1E0,1E0,1E0,1E0,1E0,1E0]},"learner_model_param":{"base_score":"7.549397E1","boost_from_average":"1","num_class":"0","num_feature":"404","num_target":"1"},"objective":{"name":"reg:squarederror","reg_loss_param":{"scale_pos_weight":"1"}}},"version":[2,0,3]}